{"learner":{"attributes":{"best_iteration":"4","best_ntree_limit":"5","scikit_learn":"{\"use_label_encoder\": null, \"n_estimators\": 5, \"objective\": \"binary:logistic\", \"max_depth\": 3, \"max_leaves\": null, \"max_bin\": null, \"grow_policy\": null, \"learning_rate\": null, \"verbosity\": null, \"booster\": null, \"tree_method\": null, \"gamma\": 3.6, \"min_child_weight\": 3, \"max_delta_step\": null, \"subsample\": 0.8, \"sampling_method\": null, \"colsample_bytree\": null, \"colsample_bylevel\": null, \"colsample_bynode\": null, \"reg_alpha\": null, \"reg_lambda\": null, \"scale_pos_weight\": 10, \"base_score\": null, \"missing\": NaN, \"num_parallel_tree\": null, \"random_state\": null, \"n_jobs\": null, \"monotone_constraints\": null, \"interaction_constraints\": null, \"importance_type\": null, \"gpu_id\": null, \"validate_parameters\": null, \"predictor\": null, \"enable_categorical\": false, \"feature_types\": null, \"max_cat_to_onehot\": null, \"max_cat_threshold\": null, \"eval_metric\": \"aucpr\", \"early_stopping_rounds\": null, \"callbacks\": null, \"kwargs\": {\"eta\": 0.2}, \"classes_\": [0, 1], \"n_classes_\": 2, \"_estimator_type\": \"classifier\"}"},"feature_names":[],"feature_types":[],"gradient_booster":{"model":{"gbtree_model_param":{"num_parallel_tree":"1","num_trees":"5","size_leaf_vector":"0"},"tree_info":[0,0,0,0,0],"trees":[{"base_weights":[-1.395467E-1,9.864561E-2,-2.8312787E-1,3.2743362E-1,-1.1264336E-1,-1.8824409E-1,-4.6833375E-1,4.0934148E-1,-1.3042039E-1,-3.6726505E-2,-8.152381E-1,-4.3938518E-1,-3.3760972E-2,-4.1573977E-1,-8.166612E-1],"categories":[],"categories_nodes":[],"categories_segments":[],"categories_sizes":[],"default_left":[1,1,1,1,1,1,1,0,0,0,0,0,0,0,0],"id":0,"left_children":[1,3,5,7,9,11,13,-1,-1,-1,-1,-1,-1,-1,-1],"loss_changes":[9.416205E2,5.0061365E2,3.0177698E2,1.8651251E2,2.871594E2,4.4072952E2,1.0625488E2,0E0,0E0,0E0,0E0,0E0,0E0,0E0,0E0],"parents":[2147483647,0,0,1,1,2,2,3,3,4,4,5,5,6,6],"right_children":[2,4,6,8,10,12,14,-1,-1,-1,-1,-1,-1,-1,-1],"split_conditions":[5E-1,5E-1,1.5595394E-1,2.0997977E-1,2.7869663E-1,5.7204492E-2,3.1978428E-1,8.18683E-2,-2.6084078E-2,-7.345301E-3,-1.6304763E-1,-8.7877035E-2,-6.7521944E-3,-8.314796E-2,-1.6333224E-1],"split_indices":[3,4,8,8,8,8,8,0,0,0,0,0,0,0,0],"split_type":[0,0,0,0,0,0,0,0,0,0,0,0,0,0,0],"sum_hessian":[2.7531E4,1.035425E4,1.717675E4,4.971E3,5.38325E3,1.135925E4,5.8175E3,4.21675E3,7.5425E2,4.85925E3,5.24E2,4.3255E3,7.03375E3,5.05625E3,7.6125E2],"tree_param":{"num_deleted":"0","num_feature":"9","num_nodes":"15","size_leaf_vector":"0"}},{"base_weights":[-1.0870746E-1,7.982541E-2,-2.2130811E-1,1.6992886E-1,-3.0373675E-1,-2.9579365E-1,-5.2087598E-2,-4.6277815E-1,2.314451E-1,-1.7993261E-1,-7.091582E-1,-4.701158E-1,-2.3844188E-1,-1.4720556E-2,-6.5812105E-1],"categories":[],"categories_nodes":[],"categories_segments":[],"categories_sizes":[],"default_left":[1,1,1,1,1,1,1,0,0,0,0,0,0,0,0],"id":1,"left_children":[1,3,5,7,9,11,13,-1,-1,-1,-1,-1,-1,-1,-1],"loss_changes":[5.830909E2,3.5501636E2,2.1673254E2,3.2384833E2,9.795665E1,1.19261475E2,1.19038055E2,0E0,0E0,0E0,0E0,0E0,0E0,0E0,0E0],"parents":[2147483647,0,0,1,1,2,2,3,3,4,4,5,5,6,6],"right_children":[2,4,6,8,10,12,14,-1,-1,-1,-1,-1,-1,-1,-1],"split_conditions":[5E-1,2.1219382E-1,4.5454547E-2,5E-1,3.2583147E-1,5.7204492E-2,2.977826E-1,-9.2555635E-2,4.6289023E-2,-3.5986524E-2,-1.4183164E-1,-9.402316E-2,-4.7688376E-2,-2.9441114E-3,-1.316242E-1],"split_indices":[3,8,6,2,8,8,8,0,0,0,0,0,0,0,0],"split_type":[0,0,0,0,0,0,0,0,0,0,0,0,0,0,0],"sum_hessian":[2.7464984E4,1.0269889E4,1.7195096E4,8.316741E3,1.9531476E3,1.1939121E4,5.255974E3,7.3638196E2,7.5803594E3,1.497345E3,4.5580258E2,2.9537937E3,8.985328E3,4.9516855E3,3.042886E2],"tree_param":{"num_deleted":"0","num_feature":"9","num_nodes":"15","size_leaf_vector":"0"}},{"base_weights":[-8.860438E-2,-2.5746385E-2,-3.6360526E-1,1.4377104E-1,-1.2831521E-1,-2.7068642E-1,-6.460741E-1,3.1298363E-1,-3.1695068E-2,-8.627536E-1,-1.08520366E-1,-3.523817E-1,-9.990902E-2,-1.4575078E0,-6.0937035E-1],"categories":[],"categories_nodes":[],"categories_segments":[],"categories_sizes":[],"default_left":[1,1,1,1,1,1,1,0,0,0,0,0,0,0,0],"id":2,"left_children":[1,3,5,7,9,11,13,-1,-1,-1,-1,-1,-1,-1,-1],"loss_changes":[4.7367596E2,3.8785144E2,1.3363507E2,2.4968437E2,2.0195079E2,5.3510742E1,3.6674194E1,0E0,0E0,0E0,0E0,0E0,0E0,0E0,0E0],"parents":[2147483647,0,0,1,1,2,2,3,3,4,4,5,5,6,6],"right_children":[2,4,6,8,10,12,14,-1,-1,-1,-1,-1,-1,-1,-1],"split_conditions":[2.1327415E-1,5E-1,1.9475423E-3,5E-1,1.5739325E-2,4.5454547E-2,5E-1,6.259673E-2,-6.3390136E-3,-1.7255072E-1,-2.1704074E-2,-7.0476346E-2,-1.9981805E-2,-2.9150158E-1,-1.2187407E-1],"split_indices":[8,3,7,4,8,6,2,0,0,0,0,0,0,0,0],"split_type":[0,0,0,0,0,0,0,0,0,0,0,0,0,0,0],"sum_hessian":[2.7401824E4,2.2304658E4,5.0971665E3,8.408074E3,1.3896583E4,3.8369507E3,1.2602161E3,4.279912E3,4.128162E3,3.635981E2,1.3532985E4,2.5946682E3,1.2422825E3,5.2861572E1,1.2073545E3],"tree_param":{"num_deleted":"0","num_feature":"9","num_nodes":"15","size_leaf_vector":"0"}},{"base_weights":[-8.077754E-2,4.6791237E-2,-1.5697685E-1,1.16020896E-1,-3.216776E-1,-2.3316114E-1,1.2938682E-2,-3.7441137E-1,1.5562534E-1,-1.2395192E0,-2.528034E-1,-7.6379657E-1,-2.1544178E-1,9.54227E-2,-2.202223E-1],"categories":[],"categories_nodes":[],"categories_segments":[],"categories_sizes":[],"default_left":[1,1,1,1,1,1,1,0,0,0,0,0,0,0,0],"id":3,"left_children":[1,3,5,7,9,11,13,-1,-1,-1,-1,-1,-1,-1,-1],"loss_changes":[2.650773E2,2.6017648E2,2.2099554E2,1.6682086E2,1.0166913E2,1.1066272E2,1.0167788E2,0E0,0E0,0E0,0E0,0E0,0E0,0E0,0E0],"parents":[2147483647,0,0,1,1,2,2,3,3,4,4,5,5,6,6],"right_children":[2,4,6,8,10,12,14,-1,-1,-1,-1,-1,-1,-1,-1],"split_conditions":[5E-1,1.8982431E-3,4.5454547E-2,3.3555053E-2,5E-1,2.1427527E-2,5E-1,-7.488228E-2,3.1125069E-2,-2.4790385E-1,-5.056068E-2,-1.5275931E-1,-4.3088358E-2,1.9084541E-2,-4.404446E-2],"split_indices":[3,7,6,8,2,8,4,0,0,0,0,0,0,0,0],"split_type":[0,0,0,0,0,0,0,0,0,0,0,0,0,0,0],"sum_hessian":[2.7267738E4,1.0196947E4,1.7070791E4,8.584698E3,1.6122484E3,1.1785987E4,5.2848037E3,6.408187E2,7.94388E3,1.113509E2,1.5008976E3,3.7948798E2,1.14065E4,3.904221E3,1.380583E3],"tree_param":{"num_deleted":"0","num_feature":"9","num_nodes":"15","size_leaf_vector":"0"}},{"base_weights":[-6.739184E-2,-3.2506544E-2,-3.985943E-1,-1.927756E-1,2.7977534E-2,-1.9495043E-1,-4.9591678E-1,-3.940241E-1,-1.3546507E-1,1.326703E-1,-1.3942073E-1,-1.5238569E0,-1.2542906E-1,-4.6312827E-1,-1.1668364E0],"categories":[],"categories_nodes":[],"categories_segments":[],"categories_sizes":[],"default_left":[1,1,1,1,1,1,1,0,0,0,0,0,0,0,0],"id":4,"left_children":[1,3,5,7,9,11,13,-1,-1,-1,-1,-1,-1,-1,-1],"loss_changes":[3.143657E2,2.3864107E2,5.1289154E1,7.774202E1,3.1325778E2,7.74193E1,3.8038055E1,0E0,0E0,0E0,0E0,0E0,0E0,0E0,0E0],"parents":[2147483647,0,0,1,1,2,2,3,3,4,4,5,5,6,6],"right_children":[2,4,6,8,10,12,14,-1,-1,-1,-1,-1,-1,-1,-1],"split_conditions":[2.6702696E-1,5.7767976E-2,1.2365596E-3,2.6943821E-2,1.4863145E-1,7.853079E-2,4.9186516E-1,-7.880482E-2,-2.7093014E-2,2.653406E-2,-2.7884146E-2,-3.047714E-1,-2.5085812E-2,-9.2625655E-2,-2.3336728E-1],"split_indices":[8,8,7,8,8,0,8,0,0,0,0,0,0,0,0],"split_type":[0,0,0,0,0,0,0,0,0,0,0,0,0,0,0],"sum_hessian":[2.720828E4,2.4616537E4,2.5917424E3,6.744077E3,1.7872459E4,8.390543E2,1.7526881E3,1.4935466E3,5.250531E3,1.0995781E4,6.876678E3,4.0672726E1,7.9838165E2,1.6726351E3,8.005304E1],"tree_param":{"num_deleted":"0","num_feature":"9","num_nodes":"15","size_leaf_vector":"0"}}]},"name":"gbtree"},"learner_model_param":{"base_score":"5E-1","boost_from_average":"1","num_class":"0","num_feature":"9","num_target":"1"},"objective":{"name":"binary:logistic","reg_loss_param":{"scale_pos_weight":"10"}}},"version":[1,7,4]}